1,0,0,0,0,0
1,0,0,0,0,0
1,0,0,0,0,0
1,0,0,0,0,0
1,0,0,0,0,0
1,0,0,0,0,0
1,0,0,0,0,0
1.0,-0.0,7.5501222197655e-08,0.00027477484691508,-2.5167074699261e-08,6.9152797939423e-12
1.0,-0.0,0.00018871744874742,0.013736150642446,-6.2909772892736e-05,8.643556093172e-07
1.0,-0.3,0.0016958966763739,0.041146331681415,-0.00056561809192489,2.3325853932895e-05
1.0,-0.0,0.015058765208427,0.12178669384963,-0.0050445206981877,0.00062694349099478
1.0,-0.0,0.12095716276143,0.32607748701518,-0.041759957033321,0.016235359153437
1.0,-0.0,0.55325409749745,0.49715591226469,-0.15310463654471,0.29015931571569
1.0,-0.0,0.91766619911496,0.27487259979282,0.54474611313097,0.66979412577075
1.0,-0.0,1.2080181870595e-06,0.0010990981429115,-4.0267289116502e-07,4.4257773973628e-10
1.0,-0.0,0.0030109558812756,0.054789506531421,-0.0010046572383687,5.5266547839785e-05
1.0,-0.0,0.026461214535236,0.16050239456331,-0.0088967251381597,0.0014801684275249
1.0,-0.0,0.1965444846292,0.3973848892334,-0.068822831171702,0.037061451709772
1.0,-0.0,0.6876577138707,0.46344857581486,-0.085944589089825,0.47917994212706
1.0,-0.0,0.95195666625719,0.21385783087297,0.72262323000547,0.57390518237679
1.0,-0.0,0.99442371554399,0.074466029219239,0.96664228134271,0.22087263159024
1.0,-0.2,1.9327940765392e-05,0.0043963129092568,-6.4426884289619e-06,2.8324804257417e-08
1.0,-0.5,0.046093511172124,0.20968762338285,-0.01559230614557,0.0034836093330025
1.0,-0.0,0.30308104447323,0.4595899530606,-0.10630426818002,0.081988646406952
1.0,-0.0,0.79649911958133,0.40260187789862,0.099201224509139,0.64418315287722
1.0,-0.0,0.97239540493116,0.16383705746846,0.83744087338073,0.46270239443904
1.0,-0.0,0.99685566900672,0.055986106989875,0.98116488097235,0.16689388445642
1.0,-0.1,0.99964965067698,0.018714341515778,0.99789827397207,0.056103650795655
1.0,-0.0,0.091574216013,0.017580154814164,-0.00010306309148875,1.8126122807174e-06
1.0,-0.4,0.43602637792239,0.49589048758599,-0.14446964154214,0.17113170330595
1.0,-0.0,0.87434333654548,0.3314620134857,0.3517883472513,0.70332160817925
1.0,-0.0,0.98428259602339,0.12437993081218,0.90658425859529,0.36097715730952
1.0,-0.0,0.99822887738064,0.042047422561007,0.98938289099161,0.1256934757082
1.0,-0.0,0.99980289829448,0.014037907836868,0.99881750661268,0.042097113962874
1.0,-0.22,0.99997809597288,0.0046801225768598,0.99986857727704,0.014039752615709
1.0,-0.0,0.0049236858353562,0.069996022409498,-0.0016439132772157,0.00011582779012403
1.0,-0.0,0.92520636225915,0.26305807247515,0.58207895455113,0.65545808028119
1.0,-0.0,0.99109774511602,0.09393085085295,0.94685134739022,0.2766675170961
1.0,-0.0,0.99900297096256,0.031560021713147,0.99402084657002,0.094490798783844
1.0,-0.0,0.9998891207293,0.010529338843557,0.99933476131162,0.03158100967727
1.0,-0.0,0.99998767886667,0.0035101255702199,0.99992607365553,0.010530117210316
1.0,-0.0,0.99999863097019,0.0011700546713174,0.99999178582677,0.0035101544028809
1.0,-0.0,0.073360884171717,0.26072795179125,-0.02501560845932,0.0072294095225633
1.0,-0.0,0.99497290240722,0.070723587879669,0.96991814527159,0.21001126198799
1.0,-0.0,0.99943892642604,0.023680345656464,0.99663450984941,0.070961206891035
1.0,-0.0,0.99993762738456,0.0078973872324029,0.99962577598784,0.023689205752284
1.0,-0.0,0.99999306932514,0.0026326083687293,0.99995841609497,0.0078977156297754
1.0,-0.0,0.99999922992027,0.00087754152909201,0.99999537952341,0.0026326205326066
1.0,-0.0,0.99999991443553,0.00029251404326101,0.99999948661318,0.00087754197961014
1,0,0,0,0,0,0,0,0,0,0,0
1,0,0,0,0,0,0,0,0,0,0,0
1,0,0,0,0,0,0,0,0,0,0,0
1,0,0,0,0,0,0,0,0,0,0,0
1,0,0,0,0,0,0,0,0,0,0,0
1,0,0,0,0,0,0,0,0,0,0,0
1,0,0,0,0,0,0,0,0,0,0,0
1.0,-0.0,7.5501222197655e-08,0.00027477484691508,-2.5167074699261e-08,6.9152797939423e-12,-3.8002901995667e-16,-1.3830559309419e-12,5.4289858744569e-17,-1.4917489127312e-20,4.5543901174482e-25,1.657498752194e-21
1.0,-0.0,0.00018871744874742,0.013736150642446,-6.2909772892736e-05,8.643556093172e-07,-2.3750618720627e-09,-1.7286242056945e-07,3.3927503496827e-10,-4.6615059365787e-12,7.1159361912769e-15,5.1791406746536e-13
1.0,-0.0,0.0016958966763739,0.041146331681415,-0.00056561809192489,2.3325853932895e-05,-1.923025560801e-07,-4.6630574887025e-06,2.7457568652988e-08,-1.1323387388046e-09,5.1857769582066e-12,1.2574755412798e-10
1.0,-0.0,0.015058765208427,0.12178669384963,-0.0050445206981877,0.00062694349099478,-1.552012707561e-05,-0.00012487759137503,2.2068150796516e-06,-2.7426898749204e-07,3.7690263140218e-09,3.0326228938384e-08
1.0,-0.0,0.12095716276143,0.32607748701518,-0.041759957033321,0.016235359153437,-0.0012165806083424,-0.003127848431471,0.00016641238667668,-6.4726423343131e-05,2.6736420580504e-06,6.8739647779741e-06
1.0,-0.0,0.55325409749745,0.49715591226469,-0.15310463654471,0.29015931571569,-0.072321492876389,-0.035746750756284,0.0059011290710211,-0.011971376769464,0.0015111750936128,0.00074487118805315
1.0,-0.0,0.91766619911496,0.27487259979282,0.54474611313097,0.66979412577075,-0.16762044379037,0.67573488839735,-0.45332119304753,0.035882450598192,-0.038644652474263,-0.214487832755
1.0,-0.0,1.2080181870595e-06,0.0010990981429115,-4.0267289116502e-07,4.4257773973628e-10,-9.728739972758e-14,-8.8515519432974e-11,1.3898194844341e-14,-1.5275504747358e-17,1.865477722619e-21,1.6972776543583e-18
1.0,-0.0,0.0030109558812756,0.054789506531421,-0.0010046572383687,5.5266547839785e-05,-6.075569039824e-07,-1.1044408259627e-05,8.671393574476e-08,-4.7701650550826e-09,2.9128540279978e-11,5.2951005699171e-10
1.0,-0.0,0.026461214535236,0.16050239456331,-0.0088967251381597,0.0014801684275249,-4.8895747085462e-05,-0.00029388871838686,6.9270950675544e-06,-1.1524957293234e-06,2.1120910174345e-08,1.2694758771561e-07
1.0,-0.0,0.1965444846292,0.3973848892334,-0.068822831171702,0.037061451709772,-0.0037353763440876,-0.0069263555191058,0.00049289623551989,-0.00026582123226114,1.4665552389592e-05,2.7193445774831e-05
1.0,-0.0,0.6876577138707,0.46344857581486,-0.085944589089825,0.47917994212706,-0.17050748561587,-0.016074763974548,0.003418494390576,-0.039066638624882,0.0066935471455916,0.00058393624042989
1.0,-0.0,0.95195666625719,0.21385783087297,0.72262323000547,0.57390518237679,0.16799595010108,0.81435553590192,-0.47284818425758,0.49755009035587,-0.4395136060895,-0.19774593234618
1.0,-0.0,0.99442371554399,0.074466029219239,0.96664228134271,0.22087263159024,0.88482918376956,0.42798077383229,0.7080475833686,0.66447196031038,0.40258313881981,0.86658821004482
1.0,-0.0,1.9327940765392e-05,0.0043963129092568,-6.4426884289619e-06,2.8324804257417e-08,-2.4905453984773e-11,-5.6649316530542e-09,3.5579010397259e-12,-1.5642049375741e-14,7.6409659836433e-18,1.7379948218215e-15
1.0,-0.0,0.046093511172124,0.20968762338285,-0.01559230614557,0.0034836093330025,-0.00015366377353511,-0.00068774813963046,2.1627202491089e-05,-4.8321727070793e-06,1.1811379552946e-07,5.2863817740213e-07
1.0,-0.0,0.30308104447323,0.4595899530606,-0.10630426818002,0.081988646406952,-0.011207482556561,-0.014457760362644,0.0013797220807888,-0.0010696145622702,7.8926118798204e-05,0.00010180869083439
1.0,-0.0,0.79649911958133,0.40260187789862,0.099201224509139,0.64418315287722,-0.30710371541672,0.1187943243127,-0.042552886203035,-0.099345759790951,0.023507060461327,-0.010145878074221
1.0,-0.0,0.97239540493116,0.16383705746846,0.83744087338073,0.46270239443904,0.47384371509366,0.77506789209111,-0.13431024416722,0.82365177184823,-0.64009329797257,0.339547794683
1.0,-0.0,0.99685566900672,0.055986106989875,0.98116488097235,0.16689388445642,0.93457396649639,0.32796292844557,0.83171013027815,0.52571123052303,0.64550738605165,0.73151002427373
1.0,-0.0,0.99964965067698,0.018714341515778,0.99789827397207,0.056103650795655,0.99265004503074,0.11199086676758,0.98078793384011,0.18586558088426,0.95824161169735,0.27659513356919
1.0,-0.0,0.0003091574216013,0.017580154814164,-0.00010306309148875,1.8126122807174e-06,-6.3753033001834e-09,-3.6249255998569e-07,9.1067177420615e-10,-1.6016352908621e-11,3.1295380296342e-14,1.7794200503402e-12
1.0,-0.0,0.43602637792239,0.49589048758599,-0.14446964154214,0.17113170330595,-0.032231269871219,-0.026696319678814,0.0034330294762438,-0.0041467011994439,0.00041028021653854,0.00033966658970557
1.0,-0.0,0.87434333654548,0.3314620134857,0.3517883472513,0.70332160817925,-0.33406515574464,0.42124953428132,-0.22586734593956,-0.13213429526591,0.043271767948332,-0.078099025621481
1.0,-0.0,0.98428259602339,0.12437993081218,0.90658425859529,0.36097715730952,0.68622409629467,0.6568560610059,0.25656590349003,0.87558490478753,-0.32206559351731,0.79714398315096
1.0,-0.0,0.99822887738064,0.042047422561007,0.98938289099161,0.1256934757082,0.96299672637863,0.24892558480274,0.90405600468285,0.40599346026057,0.79470984306267,0.58441251991227
1.0,-0.0,0.99980289829448,0.014037907836868,0.99881750661268,0.042097113962874,0.9958631980014,0.084102904073017,0.98917748354277,0.13983969803124,0.97643753504564,0.20882799678473
1.0,-0.0,0.99997809597288,0.0046801225768598,0.99986857727704,0.014039752615709,0.99954004422159,0.028076122217532,0.99879550162621,0.046781236303841,0.99737262504988,0.070137265503624
1.0,-0.0,0.0049236858353562,0.069996022409498,-0.0016439132772157,0.00011582779012403,-1.6300596394787e-06,-2.313499394488e-05,2.3251434125434e-07,-1.6382638534979e-08,1.2805378747582e-10,1.817432642275e-09
1.0,-0.0,0.92520636225915,0.26305807247515,0.58207895455113,0.65545808028119,-0.11201309409229,0.7171662017093,-0.4886904562344,0.10763389841662,-0.08796970134574,-0.24348400595924
1.0,-0.0,0.99109774511602,0.09393085085295,0.94685134739022,0.2766675170961,0.81807451071729,0.52556009693533,0.54837714666746,0.77896310379791,0.11421723278321,0.9192500719883
1.0,-0.0,0.99900297096256,0.031560021713147,0.99402084657002,0.094490798783844,0.97912240646241,0.18794228814346,0.94562726655941,0.30947391232821,0.88265255789825,0.45372266842331
1.0,-0.0,0.9998891207293,0.010529338843557,0.99933476131162,0.03158100967727,0.99767227347944,0.063123488460732,0.9939073591498,0.10506576770753,0.98672288685518,0.15720516542034
1.0,-0.0,0.99998767886667,0.0035101255702199,0.99992607365553,0.010530117210316,0.99974126530941,0.021058807196719,0.99932240826176,0.035092822360698,0.99852181468198,0.052624639318563
1.0,-0.0,0.99999863097019,0.0011700546713174,0.99999178582677,0.0035101544028809,0.99997125048649,0.0070202559449852,0.99992470423208,0.011700234355086,0.99983572075253,0.017549810920867
1.0,-0.0,0.073360884171717,0.26072795179125,-0.02501560845932,0.0072294095225633,-0.00040909420090327,-0.0014153671252502,5.7021264535854e-05,-1.6481290176139e-05,5.1590888134358e-07,1.7849195343892e-06
1.0,-0.0,0.99497290240722,0.070723587879669,0.96991814527159,0.21001126198799,0.89599519273926,0.40824181239926,0.73546919391579,0.6385047239829,0.45506359999496,0.84547234490535
1.0,-0.0,0.99943892642604,0.023680345656464,0.99663450984941,0.070961206891035,0.98823640945354,0.1414837408374,0.96928762608911,0.23421486887698,0.93339832593828,0.34686933505553
1.0,-0.0,0.99993762738456,0.0078973872324029,0.99962577598784,0.023689205752284,0.99869040858732,0.04736215542097,0.99657131555705,0.078877828317523,0.9925242727881,0.1181506246589
1.0,-0.0,0.99999306932514,0.0026326083687293,0.99995841609497,0.0078977156297754,0.99985445871018,0.015794829145921,0.99961883521932,0.026322525803473,0.99916842997617,0.039477631291038
1.0,-0.0,0.99999922992027,0.00087754152909201,0.99999537952341,0.0026326205326066,0.99998382836129,0.0052652187645584,0.9999576458907,0.0087752835145725,0.99990759180249,0.013162697199311
1.0,-0.0,0.99999991443553,0.00029251404326101,0.99999948661318,0.00087754197961014,0.99999820314651,0.0017550831332695,0.9999952939574,0.0029251355519928,0.99998973228017,0.0043876948807748
1,0,0,0,0,0,0,0,0,0,0,0,0,0,0,0,0,0,0,0,0,0
1,0,0,0,0,0,0,0,0,0,0,0,0,0,0,0,0,0,0,0,0,0
1,0,0,0,0,0,0,0,0,0,0,0,0,0,0,0,0,0,0,0,0,0
1,0,0,0,0,0,0,0,0,0,0,0,0,0,0,0,0,0,0,0,0,0
1,0,0,0,0,0,0,0,0,0,0,0,0,0,0,0,0,0,0,0,0,0
1,0,0,0,0,0,0,0,0,0,0,0,0,0,0,0,0,0,0,0,0,0
1,0,0,0,0,0,0,0,0,0,0,0,0,0,0,0,0,0,0,0,0,0
1.0,-0.0,7.5501222197655e-08,0.00027477484691508,-2.5167074699261e-08,6.9152797939423e-12,-3.8002901995667e-16,-1.3830559309419e-12,5.4289858744569e-17,-1.4917489127312e-20,4.5543901174482e-25,1.657498752194e-21,-4.140354551178e-26,1.1376654025024e-29,-2.4046296967702e-34,-8.7512721113067e-31,1.6030864247867e-35,-4.4048787130634e-39,7.1197056811942e-44,2.5911050608834e-40,-3.74721342298e-45,1.0296400983119e-48
1.0,-0.0,0.00018871744874742,0.013736150642446,-6.2909772892736e-05,8.643556093172e-07,-2.3750618720627e-09,-1.7286242056945e-07,3.3927503496827e-10,-4.6615059365787e-12,7.1159361912769e-15,5.1791406746536e-13,-6.4686382125537e-16,8.8876552417774e-18,-9.3927212167113e-21,-6.8362367496752e-19,6.2614262214817e-22,-8.6029540916906e-24,6.9525803582356e-27,5.0602465732163e-25,-3.6590247237359e-28,5.0273564847998e-30
1.0,-0.0,0.0016958966763739,0.041146331681415,-0.00056561809192489,2.3325853932895e-05,-1.923025560801e-07,-4.6630574887025e-06,2.7457568652988e-08,-1.1323387388046e-09,5.1857769582066e-12,1.2574755412798e-10,-4.7117536998414e-13,1.9431076762348e-14,-6.1606557401012e-17,-1.4938694768124e-15,4.1048136381865e-18,-1.6928081130688e-19,4.1042137411991e-22,9.9521218080444e-21,-2.158900527764e-23,8.9032162013623e-25
1.0,-0.0,0.015058765208427,0.12178669384963,-0.0050445206981877,0.00062694349099478,-1.552012707561e-05,-0.00012487759137503,2.2068150796516e-06,-2.7426898749204e-07,3.7690263140218e-09,3.0326228938384e-08,-3.4094343837993e-10,4.2373378947244e-11,-4.0307485696704e-13,-3.2432090872417e-12,2.6736666948106e-14,-3.3229057751095e-15,2.4170446213668e-17,1.9447953512334e-16,-1.2656988534193e-18,1.5730450013608e-19
1.0,-0.0,0.12095716276143,0.32607748701518,-0.041759957033321,0.016235359153437,-0.0012165806083424,-0.003127848431471,0.00016641238667668,-6.4726423343131e-05,2.6736420580504e-06,6.8739647779741e-06,-2.3212973269888e-07,9.0287313990866e-08,-2.5787713639463e-09,-6.6300511217439e-09,1.6407531853868e-10,-6.3817416368071e-11,1.3932711736217e-12,3.5821163662324e-12,-6.9965189982008e-14,2.7213097619557e-14
1.0,-0.0,0.55325409749745,0.49715591226469,-0.15310463654471,0.29015931571569,-0.072321492876389,-0.035746750756284,0.0059011290710211,-0.011971376769464,0.0015111750936128,0.00074487118805315,-7.6331202826609e-05,0.00015485885215573,-1.3373690020795e-05,-6.5920018434874e-06,4.9220902963862e-07,-9.9858148471272e-07,6.5689291434757e-08,3.2378792206472e-08,-1.9037749416469e-09,3.8623314350505e-09
1.0,-0.0,0.91766619911496,0.27487259979282,0.54474611313097,0.66979412577075,-0.16762044379037,0.67573488839735,-0.45332119304753,0.035882450598192,-0.038644652474263,-0.214487832755,0.075861571682308,-0.014992331895967,0.0042723035166572,0.021427552060465,-0.0050890016493259,0.0010152636727497,-0.00020914097411488,-0.0010482872782753,0.00019111324236948,-3.8128530126441e-05
1.0,-0.0,1.2080181870595e-06,0.0010990981429115,-4.0267289116502e-07,4.4257773973628e-10,-9.728739972758e-14,-8.8515519432974e-11,1.3898194844341e-14,-1.5275504747358e-17,1.865477722619e-21,1.6972776543583e-18,-1.6958881765486e-22,1.863950547679e-25,-1.5758977519743e-29,-1.433807548355e-26,1.0505980847763e-30,-1.1547122638091e-33,7.4655508465341e-38,6.7924223782773e-35,-3.9292357201441e-39,4.3186226390407e-42
1.0,-0.0,0.0030109558812756,0.054789506531421,-0.0010046572383687,5.5266547839785e-05,-6.075569039824e-07,-1.1044408259627e-05,8.671393574476e-08,-4.7701650550826e-09,2.9128540279978e-11,5.2951005699171e-10,-2.6454635385445e-12,1.4552790872282e-13,-6.1520394472332e-16,-1.1183419172429e-14,4.0972934886927e-17,-2.2539360083608e-18,7.286262393928e-21,1.3245254236503e-19,-3.8310494838531e-22,2.1074742156739e-23
1.0,-0.0,0.026461214535236,0.16050239456331,-0.0088967251381597,0.0014801684275249,-4.8895747085462e-05,-0.00029388871838686,6.9270950675544e-06,-1.1524957293234e-06,2.1120910174345e-08,1.2694758771561e-07,-1.9031776492178e-09,3.16641260368e-10,-4.0163817884979e-12,-2.4140530648819e-11,2.6536544006687e-13,-4.4150186103446e-14,4.2821135094382e-16,2.5737715650527e-15,-2.2334755706686e-17,3.7159459075632e-18
1.0,-0.0,0.1965444846292,0.3973848892334,-0.068822831171702,0.037061451709772,-0.0037353763440876,-0.0069263555191058,0.00049289623551989,-0.00026582123226114,1.4665552389592e-05,2.7193445774831e-05,-1.2257438998795e-06,6.6104941354639e-07,-2.5193325643442e-08,-4.6714458242166e-08,1.5422531420632e-09,-8.3174432701755e-10,2.4221876535012e-11,4.4913158983291e-11,-1.1700350392377e-12,6.310053646549e-13
1.0,-0.0,0.6876577138707,0.46344857581486,-0.085944589089825,0.47917994212706,-0.17050748561587,-0.016074763974548,0.003418494390576,-0.039066638624882,0.0066935471455916,0.00058393624042989,-8.0624539947333e-05,0.00092424990864616,-0.00010718052720004,-9.3496040982679e-06,9.3558524449714e-07,-1.0725215745336e-05,9.4436017083517e-07,8.2378710340094e-08,-6.4778183757134e-09,7.4259400792725e-08
1.0,-0.0,0.95195666625719,0.21385783087297,0.72262323000547,0.57390518237679,0.16799595010108,0.81435553590192,-0.47284818425758,0.49755009035587,-0.4395136060895,-0.19774593234618,0.076860239500636,-0.25289158415309,0.10727137004495,0.029188301534699,-0.009743972991248,0.036412157274867,-0.010464373092854,-0.0027957113933447,0.00070218439258174,-0.0026285931887562
1.0,-0.0,0.99442371554399,0.074466029219239,0.96664228134271,0.22087263159024,0.88482918376956,0.42798077383229,0.7080475833686,0.66447196031038,0.40258313881981,0.86658821004482,-0.02702107802894,0.93560073620047,-0.49760454303782,0.76388807773842,-0.82624621352655,0.30730760685539,-0.78533836483265,-0.30954615177686,-0.28295408539819,-0.74537029955275
1.0,-0.0,1.9327940765392e-05,0.0043963129092568,-6.4426884289619e-06,2.8324804257417e-08,-2.4905453984773e-11,-5.6649316530542e-09,3.5579010397259e-12,-1.5642049375741e-14,7.6409659836433e-18,1.7379948218215e-15,-6.9462893148734e-19,3.0538848390737e-21,-1.032776511911e-24,-2.3491273664122e-22,6.8851330688466e-26,-3.0269979467936e-28,7.828169630908e-32,1.7805756905583e-29,-4.1200629811415e-33,1.8113552867999e-35
1.0,-0.0,0.046093511172124,0.20968762338285,-0.01559230614557,0.0034836093330025,-0.00015366377353511,-0.00068774813963046,2.1627202491089e-05,-4.8321727070793e-06,1.1811379552946e-07,5.2863817740213e-07,-1.0569270724542e-08,2.3614955079276e-09,-3.9944557437733e-11,-1.7877859183477e-10,2.6205890073299e-12,-5.8551903250657e-13,7.5725371674965e-15,3.3892164997243e-14,-3.9217300236978e-16,8.7623338219188e-17
1.0,-0.0,0.30308104447323,0.4595899530606,-0.10630426818002,0.081988646406952,-0.011207482556561,-0.014457760362644,0.0013797220807888,-0.0010696145622702,7.8926118798204e-05,0.00010180869083439,-6.1306409413649e-06,4.7527150411247e-06,-2.4183287250166e-07,-3.1194601323422e-07,1.3745136113247e-08,-1.0655772499637e-08,4.140637644213e-10,5.3411076500814e-10,-1.8563168628616e-11,1.4390901635984e-11
1.0,-0.0,0.79649911958133,0.40260187789862,0.099201224509139,0.64418315287722,-0.30710371541672,0.1187943243127,-0.042552886203035,-0.099345759790951,0.023507060461327,-0.010145878074221,0.0019065144039506,0.0044157227802077,-0.00069177373901873,0.00029868037410944,-4.0224679139542e-05,-9.3164376553258e-05,1.101465693719e-05,-4.7556915959132e-06,5.0135940391323e-07,1.1611984765483e-06
1.0,-0.0,0.97239540493116,0.16383705746846,0.83744087338073,0.46270239443904,0.47384371509366,0.77506789209111,-0.13431024416722,0.82365177184823,-0.64009329797257,0.339547794683,-0.44943226527928,-0.34784112460624,0.16133340754924,-0.33989096920402,0.18613701623731,0.071777150608506,-0.029365814295706,0.080197655192238,-0.028946111642135,-0.010512882294645
1.0,-0.0,0.99685566900672,0.055986106989875,0.98116488097235,0.16689388445642,0.93457396649639,0.32796292844557,0.83171013027815,0.52571123052303,0.64550738605165,0.73151002427373,0.35809616987716,0.89643793846619,-0.021952195239241,0.95265362186717,-0.43964641713227,0.82873345497939,-0.78256042410656,0.48500831107458,-0.89941463250594,-0.03526083346864
1.0,-0.0,0.99964965067698,0.018714341515778,0.99789827397207,0.056103650795655,0.99265004503074,0.11199086676758,0.98078793384011,0.18586558088426,0.95824161169735,0.27659513356919,0.9201366982282,0.38205399471952,0.86107216273798,0.49869657749327,0.77557696750897,0.62111978220976,0.65879190747565,0.74169031828372,0.50740249503954,0.8503460330972
1.0,-0.0,0.0003091574216013,0.017580154814164,-0.00010306309148875,1.8126122807174e-06,-6.3753033001834e-09,-3.6249255998569e-07,9.1067177420615e-10,-1.6016352908621e-11,3.1295380296342e-14,1.7794200503402e-12,-2.844750174211e-15,5.0031772168127e-17,-6.7680016280122e-20,-3.8482094429215e-18,4.5115431140139e-21,-7.9346333907732e-23,8.2079641750349e-26,4.6669559172087e-24,-4.319539948859e-27,7.5969496566559e-29
1.0,-0.0,0.43602637792239,0.49589048758599,-0.14446964154214,0.17113170330595,-0.032231269871219,-0.026696319678814,0.0034330294762438,-0.0041467011994439,0.00041028021653854,0.00033966658970557,-2.7367525165126e-05,3.3056988864033e-05,-2.2481233577369e-06,-1.8611971224767e-06,1.095375132831e-07,-1.3230938259389e-07,6.8642442361166e-09,5.6828338962171e-09,-2.636223952393e-10,3.1842713337745e-10
1.0,-0.0,0.87434333654548,0.3314620134857,0.3517883472513,0.70332160817925,-0.33406515574464,0.42124953428132,-0.22586734593956,-0.13213429526591,0.043271767948332,-0.078099025621481,0.020420314553339,0.011258634972398,-0.0024118249862281,0.0043756457702703,-0.00079961445515037,-0.00044073707366136,7.0383584953175e-05,-0.00012769461209414,1.8130272379138e-05,9.9931667921061e-06
1.0,-0.0,0.98428259602339,0.12437993081218,0.90658425859529,0.36097715730952,0.68622409629467,0.6568560610059,0.25656590349003,0.87558490478753,-0.32206559351731,0.79714398315096,-0.73638016744197,0.27586771565915,-0.54702952551633,-0.41093343838837,0.14110300767949,-0.52757190059687,0.37896513523109,0.019945250644665,0.0067871630628541,0.21961304215127
1.0,-0.0,0.99822887738064,0.042047422561007,0.98938289099161,0.1256934757082,0.96299672637863,0.24892558480274,0.90405600468285,0.40599346026057,0.79470984306267,0.58441251991227,0.61790398661855,0.76179475357799,0.36364562423597,0.90385267683188,0.037897404607441,0.96578423022184,-0.32754485909903,0.89984214178402,-0.66847044538797,0.67133773880614
1.0,-0.0,0.99980289829448,0.014037907836868,0.99881750661268,0.042097113962874,0.9958631980014,0.084102904073017,0.98917748354277,0.13983969803124,0.97643753504564,0.20882799678473,0.95480766183335,0.29016377923089,0.92102821354735,0.38232636320885,0.87156391587679,0.48296592370069,0.80283046334409,0.58868918030703,0.71151619789278,0.69487114757723
1.0,-0.0,0.99997809597288,0.0046801225768598,0.99986857727704,0.014039752615709,0.99954004422159,0.028076122217532,0.99879550162621,0.046781236303841,0.99737262504988,0.070137265503624,0.99494435050631,0.098110417636641,0.9911199880161,0.13064331275958,0.98544710758702,0.16764590881093,0.97741449203183,0.20898505736842,0.96645649275783,0.25447281376325
1.0,-0.0,0.0049236858353562,0.069996022409498,-0.0016439132772157,0.00011582779012403,-1.6300596394787e-06,-2.313499394488e-05,2.3251434125434e-07,-1.6382638534979e-08,1.2805378747582e-10,1.817432642275e-09,-1.1622627522766e-11,8.1891424204189e-13,-4.4312583704091e-15,-6.2891647076481e-14,2.9493730181851e-16,-2.0780873902695e-17,8.5988482712564e-20,1.220411191438e-18,-4.518311893657e-21,3.1835399976945e-22
1.0,-0.0,0.92520636225915,0.26305807247515,0.58207895455113,0.65545808028119,-0.11201309409229,0.7171662017093,-0.4886904562344,0.10763389841662,-0.08796970134574,-0.24348400595924,0.092203063906344,-0.036009656190927,0.01094813040081,0.027790040727813,-0.0070115643507491,0.0027640908328278,-0.00060337744708407,-0.0015305090597119,0.00029524470306125,-0.00011639543500999
1.0,-0.0,0.99109774511602,0.09393085085295,0.94685134739022,0.2766675170961,0.81807451071729,0.52556009693533,0.54837714666746,0.77896310379791,0.11421723278321,0.9192500719883,-0.40778015254419,0.79325441912304,-0.7861821176597,0.31561758294937,-0.70744740776415,-0.34829120205464,-0.097508428841208,-0.70418739620893,0.50711194326596,-0.3356265447012
1.0,-0.0,0.99900297096256,0.031560021713147,0.99402084657002,0.094490798783844,0.97912240646241,0.18794228814346,0.94562726655941,0.30947391232821,0.88265255789825,0.45372266842331,0.77829563465864,0.6108252724999,0.62176157581882,0.76492722486824,0.40665573376049,0.89336225480171,0.13537954516947,0.96736134178526,-0.17598099077441,0.95532770061265
1.0,-0.0,0.9998891207293,0.010529338843557,0.99933476131162,0.03158100967727,0.99767227347944,0.063123488460732,0.9939073591498,0.10506576770753,0.98672288685518,0.15720516542034,0.97449395889407,0.21915856076057,0.95531624230658,0.29027848979942,0.92705359174528,0.36955678514454,0.88741169718403,0.45552024681711,0.83404467878724,0.54612523067752
1.0,-0.0,0.99998767886667,0.0035101255702199,0.99992607365553,0.010530117210316,0.99974126530941,0.021058807196719,0.99932240826176,0.035092822360698,0.99852181468198,0.052624639318563,0.99715514112703,0.073639994839298,0.99500174115318,0.098114657277093,0.99180526300134,0.12601057024326,0.98727458659728,0.15727138743001,0.98108520850507,0.19181742819375
1.0,-0.0,0.99999863097019,0.0011700546713174,0.99999178582677,0.0035101544028809,0.99997125048649,0.0070202559449852,0.99992470423208,0.011700234355086,0.99983572075253,0.017549810920867,0.99968377044821,0.024568457071635,0.99944422478809,0.032755274302441,0.99908836370191,0.042108850156981,0.99858338718638,0.052627090347306,0.99789243249885,0.064307027132767
1.0,-0.0,0.073360884171717,0.26072795179125,-0.02501560845932,0.0072294095225633,-0.00040909420090327,-0.0014153671252502,5.7021264535854e-05,-1.6481290176139e-05,5.1590888134358e-07,1.7849195343892e-06,-4.5693118303756e-08,1.3207029838051e-08,-2.86008847255e-10,-9.8952120603919e-10,1.8568946511047e-11,-5.3671239726359e-12,8.8859646032569e-14,3.0743281179678e-13,-4.5538641839235e-15,1.3162380329505e-15
1.0,-0.0,0.99497290240722,0.070723587879669,0.96991814527159,0.21001126198799,0.89599519273926,0.40824181239926,0.73546919391579,0.6385047239829,0.45506359999496,0.84547234490535,0.051781720685476,0.94139434081903,-0.41174848920958,0.82426901738129,-0.78273512800088,0.43419364956914,-0.84860417629574,-0.15604951638832,-0.46995833050518,-0.67560217383049
1.0,-0.0,0.99943892642604,0.023680345656464,0.99663450984941,0.070961206891035,0.98823640945354,0.1414837408374,0.96928762608911,0.23421486887698,0.93339832593828,0.34686933505553,0.87312593931198,0.47518635772368,0.78067431541474,0.61214167263651,0.64902271369807,0.74724142739941,0.47355612898003,0.86612852140859,0.25417227081394,0.95081973428395
1.0,-0.0,0.99993762738456,0.0078973872324029,0.99962577598784,0.023689205752284,0.99869040858732,0.04736215542097,0.99657131555705,0.078877828317523,0.9925242727881,0.1181506246589,0.98562581707089,0.16501850295708,0.97478224609163,0.21920690537447,0.95874480946171,0.28028649884479,0.93613336083853,0.34762580947397,0.90547095158999,0.42034042028919
1.0,-0.0,0.99999306932514,0.0026326083687293,0.99995841609497,0.0078977156297754,0.99985445871018,0.015794829145921,0.99961883521932,0.026322525803473,0.99916842997617,0.039477631291038,0.99839943270851,0.055254126610031,0.99718745013589,0.073641783223898,0.9953876952501,0.094624529499517,0.99283528427055,0.11817855293458,0.98934567605578,0.14427014521357
1.0,-0.0,0.99999922992027,0.00087754152909201,0.99999537952341,0.0026326205326066,0.99998382836129,0.0052652187645584,0.9999576458907,0.0087752835145725,0.99990759180249,0.013162697199311,0.99982211675093,0.018427236821024,0.99968736373246,0.024568523299016,0.9994871704248,0.03158596068496,0.99920307285996,0.039478665280564,0.99881431086599,0.048245384686675
1.0,-0.0,0.99999991443553,0.00029251404326101,0.99999948661318,0.00087754197961014,0.99999820314651,0.0017550831332695,0.9999952939574,0.0029251355519928,0.99998973228017,0.0043876948807748,0.99998023467058,0.0061427528601438,0.99996526102283,0.0081902954490615,0.99994301459844,0.010530300572475,0.99991144207165,0.013162735493599,0.99986823359656,0.016087553811041
